51 20
-489.995605
337.622498
-352.134216
-100.547668
126.422913
187.767929
-388.263611
115.089378
384.665649
186.178833
143.003464
206.507248
223.867355
87.864899
-320.142456
401.156250
207.916443
157.425232
303.441986
368.954620
62.469379
488.076691
398.008057
0.884496
-333.844635
299.184387
4.962171
-277.476776
-262.545288
223.897339
154.007187
224.437027
30.417656
67.986237
-420.375305
405.293884
489.995605
-164.621124
-119.676758
291.718658
-301.313202
490.925079
189.506943
383.316437
4.062684
-344.728424
-268.122101
-426.431854
-347.247009
272.859406
401.965790
389.103119
176.764206
310.517944
-221.078934
21.572699
270.670654
-180.811905
488.766296
-191.156006
303.322052
109.542542
-193.494675
-464.240295
454.915588
74.702400
-206.027527
-325.269531
-368.324982
-460.702301
-43.760048
-104.565376
189.416992
169.718231
173.526047
-58.781483
139.165649
150.888962
267.732330
-103.216148
83.517380
-105.674744
-72.153854
485.947906
192.325333
361.278992
412.609711
121.925476
424.063202
362.208466
413.898987
-100.787529
-125.643356
-153.677368
332.975128
-385.475189
119.077103
-87.894882
-290.399414
-17.794853
-19.773726
-229.684036
-422.084320
71.314339
417.347015
404.334442
50.266338
-156.225922
-412.519775
141.984039
161.293030
396.778748
-109.422607
-481.180634
55.663261
-143.423218
438.275085
-71.224388
-323.650452
-439.564362
-147.081131
-199.161438
458.423615
-441.603180
-304.611298
112.690742
159.943802
-177.423828
-444.961273
202.939285
-343.109344
-188.037781
-442.142883
-228.604645
-126.512863
317.384033
184.859589
-273.489044
-109.782402
149.299866
389.013184
334.174438
179.972382
30.777451
-161.173096
223.687454
-378.699066
-130.110809
-433.537781
-407.272766
133.948624
-109.932312
304.341461
-155.656250
274.598419
-71.014503
-206.507248
175.384995
-313.186432
-490.385376
317.174133
-467.898193
-340.680756
-300.563629
-316.004822
-448.769104
-7.330820
158.174805
-160.723358
51.075874
68.316048
69.335464
-324.639893
-263.204926
-262.785156
-324.370056
65.977379
-327.698151
79.559631
263.864532
242.276855
-121.955460
370.633667
337.022827
486.487610
164.831009
-118.747292
297.085602
407.422668
440.044067
-76.591324
-143.872955
-431.468964
266.263184
135.807556
-490.385376
-205.937576
-2.413624
-299.034485
251.691483
-320.172424
-400.226776
316.034790
124.533989
-41.811157
468.168060
-3.133214
301.493073
-99.618195
-433.477814
435.246826
229.594086
-186.118866
-126.003151
-263.624664
154.696793
47.387978
7.510717
452.067230
-275.347992
352.643921
174.095734
80.609039
154.846710
489.276001
-181.741364
288.210663
26.070135
-66.037346
-221.078934
39.862270
241.047546
279.485626
363.377808
-290.219513
268.751770
208.636032
297.415405
-304.311493
-339.181610
206.807083
-435.996399
-303.232086
-296.845734
-395.429535
67.986237
9.099812
109.152763
438.335052
-348.596222
77.190987
232.232574
-282.483917
-376.420349
462.771118
-428.620605
-249.112961
-63.788628
-116.198746
-434.707123
13.297418
-482.589813
-316.454559
336.153320
122.974876
-190.766220
-115.569099
292.947968
331.266113
473.325104
35.814579
235.230865
-174.965240
221.618637
-214.422729
-402.985199
45.858852
-486.787415
-192.565201
167.619415
-192.565201
411.440399
311.627319
-370.063995
-398.487793
-320.352325
184.859589
393.570587
33.625828
117.877785
-240.417908
-354.352936
-15.066409
126.662773
-468.737732
-112.330948
-7.240871
-157.695084
-372.522583
-459.113220
-476.503296
-220.179459
-24.301144
-383.226471
-61.180115
-384.575714
31.586988
-348.956024
336.093353
-204.108612
-101.237274
-294.567047
-482.230042
387.034302
264.494171
180.661987
444.121765
-121.925476
-296.545898
-151.428650
-401.426117
-223.117783
-338.402039
238.858795
423.943268
362.568268
104.415459
127.892075
190.136581
415.068329
-147.111115
-223.417603
-59.081310
-311.417419
-342.059967
302.212677
166.839859
-364.906921
-445.800812
194.394150
-133.169067
86.365753
3.852803
-182.670837
-443.642029
345.058258
-102.976280
-95.870331
-100.517685
-130.140793
-455.245422
177.273911
7.720598
34.945072
-445.081207
-339.841217
260.506470
321.581635
266.413086
292.917969
-346.497437
187.827896
227.945023
433.327911
387.693939
240.028137
-485.438202
-241.977020
-236.610077
191.126022
290.069611
403.914673
104.085648
394.949799
-482.140076
-350.874939
121.205887
229.204300
256.458771
-62.619293
-328.237823
331.685883
-92.752113
-210.165161
-206.297363
-339.061676
204.228546
-357.081390
-486.967316
-276.427368
-298.164978
-129.840958
254.000168
275.168091
-148.760178
-443.612061
-53.294609
384.275879
374.351532
473.265137
479.951324
222.518112
-216.551514
-160.813309
-267.912231
-170.048035
-392.371277
348.956024
25.140665
-338.042236
-422.174286
17.345110
-97.189583
457.044403
141.354401
-151.158813
293.517639
140.814713
-489.485901
133.169067
-53.354576
-14.796563
67.536491
-353.423462
264.344269
-413.269348
120.906059
-426.221954
446.820221
-254.899658
-108.643051
-383.766174
-147.560852
-297.325470
-154.007187
-472.995300
241.227448
147.950638
-50.476219
-201.110321
-374.231598
-289.469940
179.042908
228.994431
-87.714981
-415.967804
356.871521
-70.924561
-99.528252
21.062990
89.154167
400.286743
336.633057
394.500061
-83.937141
470.026978
480.341095
14.226888
-72.333755
-22.622101
-486.637512
239.458466
251.361664
328.747559
-292.798035
138.506027
-8.350239
72.063911
-254.359955
395.219635
-421.544617
-291.718658
434.557220
292.198395
-82.018234
145.042297
-290.189545
229.863922
296.246063
367.785278
-482.469879
-30.987331
218.020676
204.348480
125.823257
314.385742
242.996445
-194.244247
84.057068
-386.674500
-297.025635
17.644939
121.145920
445.441010
-402.145691
-438.514954
127.202469
233.012131
-37.973347
-413.329315
-119.976585
-41.301449
-24.271160
98.478844
102.316658
44.299740
-3.043265
47.208080
-240.567825
395.579437
-338.072235
152.118256
488.556427
342.689606
44.389690
406.882996
402.625427
449.068939
-5.052119
-392.011475
31.107262
441.273376
-370.363800
242.876511
-47.537895
-50.836014
-117.787834
-269.621246
180.781921
-57.252354
141.804138
-60.400558
-438.694855
383.496338
195.773361
135.057983
89.693855
-33.565861
245.005295
-350.515137
69.935120
240.148071
-129.870941
-242.936478
-33.056152
-89.424011
280.355133
-185.339325
437.465546
-412.519775
-44.869415
184.349884
61.749790
126.452896
-159.164246
-67.086746
411.050629
-134.338394
-256.908508
-350.725006
99.977989
-384.845551
328.807526
-349.285828
96.110199
-197.722260
51.885414
-382.536865
-63.368866
277.146973
102.466576
-402.385559
357.171326
-309.018799
154.756760
-470.536682
5.441897
-381.007751
58.361721
410.660828
105.284966
97.309517
-456.744568
-489.635803
132.359528
-33.835705
-140.394943
302.632446
383.376404
-322.451141
193.884445
-413.059479
-111.251564
114.879494
369.644226
-252.890793
-10.419059
397.558319
-400.106842
-187.917847
-327.908020
-112.750710
16.715469
-431.289062
348.566254
1.184325
447.719696
-358.880371
-484.178925
466.069244
-57.672115
-416.777344
-190.196548
-230.883347
34.855125
-106.154472
-49.396835
315.585052
414.618591
-123.964317
160.183655
230.883347
160.123703
300.863434
323.020813
-341.250427
128.551697
-211.964142
433.237976
271.030457
181.231659
-463.910461
-211.994125
-244.975311
68.795769
151.308716
382.506897
-44.419670
386.914368
308.329193
-48.347431
107.053955
-72.483665
346.437469
122.585098
-173.855865
-317.743805
283.053589
99.768112
363.887512
-101.657036
-142.373810
-464.989868
228.124924
-438.185150
276.937073
432.668274
-384.455780
350.755005
-445.411011
-145.282166
71.134438
-388.383545
-284.342865
217.031250
233.821671
-123.544556
388.293579
281.134705
-284.282898
329.826935
-189.387009
110.591942
283.053589
-33.625828
-468.797699
-311.507385
362.958038
-432.638306
308.688995
-435.186859
-136.227325
441.453278
-377.649658
64.598167
-182.850739
-361.908630
284.552734
75.332047
-42.620697
90.593346
193.824478
-106.904045
-323.290649
-235.800537
320.322357
-243.686050
256.788574
-8.949897
-255.439346
105.794678
-342.329803
413.988953
52.275192
-122.675049
320.951996
239.008713
239.518417
-351.294678
-487.536987
-295.136719
-351.054840
-472.935333
210.135178
-71.913994
-355.222443
-291.778625
-452.786804
129.721039
390.902100
278.346283
-270.071014
48.677242
-477.222870
-310.188141
451.017822
443.791931
113.200455
-272.799438
246.234589
441.573212
-103.306091
-460.732300
-18.724323
356.961456
131.909790
226.445877
-81.868317
242.876511
-239.218597
297.295471
-73.533073
-151.308716
-379.448639
233.731720
366.795837
110.022263
-136.437195
-114.939461
-379.178802
369.404358
-424.572906
-43.520184
-411.170532
-13.177486
49.516766
433.387878
428.470673
251.571548
-226.595795
19.533861
297.565338
-27.779160
-44.689518
54.164116
221.078934
-463.880493
350.395203
-487.027283
-93.621613
-106.394333
172.656555
351.654480
301.163269
-405.323883
475.004150
122.884933
-424.662842
-239.968170
-286.861420
-194.574051
16.805418
-122.824966
247.793701
397.978058
-196.432999
-167.169678
-266.742889
-80.639015
-185.549194
478.901917
220.988983
429.100311
349.105927
64.658134
-35.934509
-450.598053
-329.257263
402.715363
-265.873383
369.374390
481.390503
340.890625
182.880722
-252.620956
436.206268
-436.296234
357.201324
-410.420959
483.969025
-309.168701
-296.006226
-96.380043
-368.774719
205.727692
-280.205231
138.865814
-283.653259
286.861420
340.081085
222.698013
247.134079
-179.912415
42.680664
-305.600739
-366.226166
136.767014
-265.813416
157.125412
-453.326508
388.773315
190.616302
223.297668
-189.147141
273.579010
-195.803345
-457.314240
-376.360382
-295.106720
368.265015
447.899597
-151.728485
-43.130405
-418.636292
102.886330
-426.641724
-361.908630
-246.054703
348.866058
-243.566116
73.143295
113.680176
109.632484
72.033928
357.830963
277.206940
55.363430
89.513962
51.915398
380.887817
418.246521
-325.209564
-224.107208
-62.169552
195.023788
279.965363
340.980560
41.661243
-427.511230
-305.270935
-56.922543
152.178223
302.962250
-26.549862
344.398621
-154.696793
43.700081
-374.951202
-440.883606
338.731842
38.662952
154.546875
474.494446
-292.828033
83.127602
24.151228
357.920898
476.323395
305.600739
-247.883652
125.103668
43.220356
368.834686
257.448212
-203.359039
-19.054134
-52.724937
116.198746
21.782579
107.353783
-351.384644
-7.960461
-198.651733
192.775070
-146.091690
107.713577
95.180725
-438.365051
159.224213
-340.410889
204.858185
-394.649963
81.148727
-302.722382
357.980865
106.124489
-430.929291
78.690132
285.272339
-451.047821
-37.253757
-428.800507
234.991013
-205.967560
-5.441897
448.109497
217.750839
-411.230499
188.127731
118.207596
-442.472687
44.569588
93.351768
223.777405
142.373810
-390.512329
487.327118
186.958389
200.570633
-320.742096
-260.026733
196.253098
66.097313
-62.199532
-412.249939
-420.225372
347.756714
24.241177
297.385437
378.609100
-210.674866
-442.472687
-413.599152
486.337677
242.516708
475.933624
-365.716461
227.495285
-467.598358
-310.697845
355.882080
4.722307
-298.674683
-262.875092
236.520126
369.044556
-476.803131
-71.913994
29.608118
431.379028
-235.590668
466.249146
288.030762
-476.143494
322.870911
251.331696
99.138474
408.352142
227.675171
-141.564285
-285.302307
-346.317535
256.728607
76.501381
110.082230
151.158813
-366.975739
-398.217926
182.371017
-299.004517
-90.743256
-35.334850
-37.133827
145.042297
260.956207
-342.989410
-441.753113
166.749924
52.425106
-49.846577
274.748322
441.693146
333.484833
32.006748
118.267563
-174.755356
204.258530
-236.969879
-350.964874
274.748322
388.383545
461.721710
89.034233
188.277649
365.386658
-42.830578
-321.461700
-197.962112
406.942963
-309.408569
20 31
387.544006
231.782837
-281.494476
-171.996933
450.777954
0.434752
-66.637001
82.497955
-303.861725
-86.185860
-26.639811
-416.837311
-246.384506
-214.782532
391.052032
-155.656250
6.191470
281.824310
290.219513
102.736420
168.848724
-391.082001
-95.150742
-103.725853
-79.979393
18.664358
230.793396
-321.791504
-484.148926
-417.916687
-290.189545
120.876076
312.586761
-459.682892
392.011475
105.344933
202.759384
423.973236
-416.117737
-52.275192
417.257080
-318.403442
-460.882202
69.455399
441.573212
-15.366238
-447.629761
-226.685745
146.991180
490.895081
-143.453201
313.546204
-86.845482
-84.986542
-219.220001
106.394333
-231.273132
-401.426117
-161.832718
-234.841095
-486.127808
-296.965668
45.529037
-368.774719
266.413086
-293.277771
283.173523
-229.953873
-114.969444
-91.342918
383.496338
99.288383
-465.019836
-141.264450
-150.409241
473.684906
-170.497787
-15.426204
-424.153137
-409.011780
132.629379
-136.317276
-485.558136
-464.270264
155.746185
-180.002365
271.899963
-483.999023
-410.930695
-426.941559
-206.777100
407.512634
-301.702972
404.454376
215.052368
-266.982758
432.458405
-75.931702
316.694427
32.546440
-191.275940
73.023361
-204.198563
-450.328217
211.544373
39.232628
224.047241
36.833996
-470.806549
-250.672058
-233.072098
116.768417
165.160828
-8.500154
184.139999
317.683868
318.553345
-409.041748
74.912285
248.633224
1.873931
445.021240
-86.785515
-295.196686
22.202339
-122.735016
55.603294
-368.354950
312.796631
144.052856
-481.330536
-1.394205
-462.951019
-23.821417
-44.419670
-88.614471
162.012619
93.141891
69.545341
332.255554
473.594940
-357.141357
93.111908
467.688324
102.796387
-236.879929
437.375610
347.306976
-342.689606
265.813416
340.890625
455.545258
353.153625
250.851959
448.769104
226.595795
147.201065
301.013367
343.199310
235.260849
95.510536
465.919342
-412.579742
486.547577
-96.619904
355.942047
-313.965973
364.247314
-223.627487
-160.603424
116.438606
6.341384
-277.506775
91.492828
-271.510193
427.691132
-325.179565
-213.073502
-185.159424
-286.951385
-385.595123
135.387802
303.831757
17.135229
-306.860016
91.852623
490.565277
408.142273
345.837799
387.034302
-357.830963
-232.232574
358.790405
368.205048
-433.028076
443.402161
-357.501160
-198.531799
424.932709
-361.578827
-149.179932
39.862270
113.500282
61.479942
-300.383728
388.833282
-205.697708
-266.592987
-489.036133
-297.025635
-405.413818
460.972137
-137.906357
-52.605003
203.868759
-391.291870
234.601227
461.092072
382.836700
-165.430664
-53.474510
16.235743
338.192169
-61.479942
-192.295349
117.098228
47.507912
-477.013000
-312.316925
437.465546
-296.755798
-324.969696
102.226707
-421.454681
-316.094757
470.476715
-150.349274
103.965721
-305.540771
114.219872
63.548763
-179.522629
-128.281845
-24.541006
405.743652
-239.548401
-75.511940
-202.009811
360.979156
-459.622925
38.243195
-273.009338
-471.496155
-39.232628
196.133163
276.577301
-238.798828
329.047363
-282.184082
240.597809
-387.873840
98.748695
-206.147446
67.476524
-130.170776
129.960892
-263.774597
445.560944
242.576675
355.852081
-442.652588
-30.387672
-27.689211
396.898682
-398.487793
-315.105316
413.659119
174.815323
176.674255
334.234406
268.691803
483.159485
132.389511
-484.358826
243.805984
-164.111420
425.292480
-324.370056
289.260071
312.946564
-358.850372
-340.680756
-12.427914
-275.797729
272.499603
447.539795
-386.194794
-449.668610
162.222504
367.275574
258.677490
153.317581
486.427643
126.872658
21.332836
-83.217552
-17.764870
-8.590102
26.939638
281.104706
-347.127075
-50.236355
362.868103
59.021347
243.955887
-145.791870
100.547668
86.875465
-377.139954
296.365997
291.988495
-434.017517
56.952526
-142.133957
415.398132
137.576553
353.753296
-45.469074
-256.368805
-293.097870
404.994080
-444.451569
-76.681274
-65.587601
-164.291321
-272.469635
-306.170410
-27.419365
-399.327301
318.523376
413.928986
-123.394638
-483.789124
144.292725
121.865509
-163.211929
-476.983032
-1.424188
-278.796021
-263.804565
91.222984
274.748322
25.170647
294.986786
-265.333710
235.470734
193.284790
-159.673950
254.300003
-240.567825
-213.823074
324.310089
-16.475605
446.520386
-129.211319
-413.299347
-193.914429
-154.127121
195.743378
320.262390
331.266113
420.914978
-211.844208
-266.622955
-267.492462
-75.002235
395.069733
-23.041861
58.571602
-216.821365
-5.022136
363.587677
155.716202
-138.655930
388.203644
-21.182920
301.613007
255.379379
-253.580399
-163.271896
-91.552795
-142.014023
104.055664
-436.056366
102.136757
-79.799500
112.510849
-21.152939
406.133423
-246.984161
-415.877869
-224.496994
338.282104
-323.260681
-80.099327
307.309784
-475.034119
-37.073860
124.264145
-452.906738
59.650986
451.737427
-178.743073
-197.722260
301.343170
-419.985535
188.427551
147.800720
361.548828
-206.777100
-434.827057
289.769775
31.437075
-191.695694
453.146606
-293.877441
-113.110504
-350.904907
-186.058914
-265.933350
429.040344
-213.553223
-0.494718
-236.789978
465.439606
-337.382629
-126.692757
357.740997
263.204926
-94.431152
-119.646774
367.845245
-442.802521
431.468964
276.487335
-335.193878
365.776428
440.283936
183.420410
-336.003418
-441.153442
-213.673157
-223.537537
-205.337921
279.245758
-407.722504
-84.117035
79.019943
-215.442154
-84.087051
-186.358734
-218.650330
-114.099937
363.947479
-387.633972
237.569534
411.680267
-130.770432
-354.053101
-441.603180
-114.339806
-262.275452
-245.544983
-412.999512
-228.004990
414.108856
392.850983
316.754395
168.129135
-225.876205
-75.152145
484.058990
190.886154
393.030884
-275.108124
-343.738983
64.328316
-156.645676
371.113373
319.272949
260.086700
-339.661316
-196.942703
140.754745
-344.848358
-430.419556
212.803650
1.664051
-456.864502
-228.514694
128.671631
-464.090363
429.669983
-195.113739
-159.494049
435.546661
336.123352
-361.728729
-109.752419
474.104675
262.185486
281.434509
-321.791504
366.705902
-118.447456
-393.360687
41.871124
454.435883
120.966026
-159.733917
-59.860867
335.613617
-155.686234
316.784363
14.826546
462.531250
396.688812
-460.882202
-252.620956
60.220661
-204.378464
-467.478424
-207.466705
353.213593
223.147766
-216.401611
214.932449
-252.860809
-462.501282
47.927670
-257.867950
-427.931000
-470.176910
-423.523499
66.397141
223.567520
-386.374695
185.729095
72.603600
302.992218
-104.745270
485.738037
-108.942879
-312.137024
314.025940
-67.266647
37.703503
-345.507996
142.493744
250.012436
-100.337784
178.473236
179.222809
95.150742
455.964996
360.169617
15.276289
-365.836395
-1.214308
-312.976532
168.938675
13.327400
217.870773
-60.550472
-274.958221
362.028564
-288.360565
205.667725
-103.515976
372.012878
-486.457611
443.132324
-274.148682
-71.254372
-223.717438
127.622231
-352.973724
-274.418518
385.864990
307.219818
399.387268
-373.541992
60.370575
460.852203
377.139954
106.904045
-264.194366
-9.279709
270.071014
-468.617798
312.496826
-48.197517
-259.546997
352.763855
-449.818512
-195.593475
-411.440399
-439.204559
337.772400
484.538696
-89.693855
-387.813873
8.979879
-385.775024
220.239410
-288.900269
289.889709
466.638916
-425.652283
-138.116241
1 20
448.679169
-116.348656
-165.580582
181.321609
380.737885
-117.787834
-65.557617
171.577164
-228.814529
-16.865383
27.359400
296.755798
288.960236
242.007004
-13.087538
322.031372
58.001926
-217.331070
-150.139389
-438.035217
1 31
404.034607
258.287720
-129.211319
-213.793091
-283.683228
-172.356720
-441.962982
374.921204
-246.774292
-94.491119
-348.896057
368.684784
106.214432
278.676086
-297.835175
-47.447945
257.178345
-65.497650
134.068558
299.214386
-319.842621
-174.215668
455.065521
205.727692
-297.145569
356.511719
-444.751404
238.948746
-455.815094
-362.688202
-410.301056
